digraph Tree {
node [shape=box, fontname="helvetica"] ;
edge [fontname="helvetica"] ;
0 [label="x[6] <= 241.5\nentropy = 0.698\nsamples = 2335\nvalue = [384, 13, 1937, 1]"] ;
1 [label="x[3] <= 669.5\nentropy = 1.042\nsamples = 714\nvalue = [336, 4, 374, 0]"] ;
0 -> 1 [labeldistance=2.5, labelangle=45, headlabel="True"] ;
2 [label="x[0] <= 2590.5\nentropy = 0.532\nsamples = 418\nvalue = [40, 4, 374, 0]"] ;
1 -> 2 ;
3 [label="x[0] <= 672.5\nentropy = 0.405\nsamples = 363\nvalue = [21, 4, 338, 0]"] ;
2 -> 3 ;
4 [label="x[1] <= 2628.0\nentropy = 0.575\nsamples = 132\nvalue = [18, 0, 114, 0]"] ;
3 -> 4 ;
5 [label="x[6] <= 41.5\nentropy = 0.646\nsamples = 109\nvalue = [18, 0, 91, 0]"] ;
4 -> 5 ;
6 [label="x[0] <= 198.0\nentropy = 0.997\nsamples = 15\nvalue = [7, 0, 8, 0]"] ;
5 -> 6 ;
7 [label="entropy = 0.0\nsamples = 6\nvalue = [0, 0, 6, 0]"] ;
6 -> 7 ;
8 [label="x[4] <= 268.5\nentropy = 0.764\nsamples = 9\nvalue = [7, 0, 2, 0]"] ;
6 -> 8 ;
9 [label="entropy = 0.0\nsamples = 5\nvalue = [5, 0, 0, 0]"] ;
8 -> 9 ;
10 [label="x[4] <= 282.0\nentropy = 1.0\nsamples = 4\nvalue = [2, 0, 2, 0]"] ;
8 -> 10 ;
11 [label="entropy = 0.0\nsamples = 1\nvalue = [0, 0, 1, 0]"] ;
10 -> 11 ;
12 [label="x[5] <= 296.0\nentropy = 0.918\nsamples = 3\nvalue = [2, 0, 1, 0]"] ;
10 -> 12 ;
13 [label="entropy = 0.0\nsamples = 2\nvalue = [2, 0, 0, 0]"] ;
12 -> 13 ;
14 [label="entropy = 0.0\nsamples = 1\nvalue = [0, 0, 1, 0]"] ;
12 -> 14 ;
15 [label="x[3] <= 469.5\nentropy = 0.521\nsamples = 94\nvalue = [11, 0, 83, 0]"] ;
5 -> 15 ;
16 [label="x[2] <= 649.5\nentropy = 0.612\nsamples = 73\nvalue = [11, 0, 62, 0]"] ;
15 -> 16 ;
17 [label="x[1] <= 2504.5\nentropy = 0.694\nsamples = 59\nvalue = [11, 0, 48, 0]"] ;
16 -> 17 ;
18 [label="x[8] <= 120.0\nentropy = 0.629\nsamples = 57\nvalue = [9, 0, 48, 0]"] ;
17 -> 18 ;
19 [label="x[1] <= 1958.0\nentropy = 0.74\nsamples = 43\nvalue = [9, 0, 34, 0]"] ;
18 -> 19 ;
20 [label="x[1] <= 248.5\nentropy = 0.845\nsamples = 33\nvalue = [9, 0, 24, 0]"] ;
19 -> 20 ;
21 [label="entropy = 0.0\nsamples = 5\nvalue = [0, 0, 5, 0]"] ;
20 -> 21 ;
22 [label="x[6] <= 75.5\nentropy = 0.906\nsamples = 28\nvalue = [9, 0, 19, 0]"] ;
20 -> 22 ;
23 [label="x[1] <= 1851.5\nentropy = 0.503\nsamples = 9\nvalue = [1, 0, 8, 0]"] ;
22 -> 23 ;
24 [label="entropy = 0.0\nsamples = 6\nvalue = [0, 0, 6, 0]"] ;
23 -> 24 ;
25 [label="x[1] <= 1857.5\nentropy = 0.918\nsamples = 3\nvalue = [1, 0, 2, 0]"] ;
23 -> 25 ;
26 [label="entropy = 0.0\nsamples = 1\nvalue = [1, 0, 0, 0]"] ;
25 -> 26 ;
27 [label="entropy = 0.0\nsamples = 2\nvalue = [0, 0, 2, 0]"] ;
25 -> 27 ;
28 [label="x[6] <= 166.5\nentropy = 0.982\nsamples = 19\nvalue = [8, 0, 11, 0]"] ;
22 -> 28 ;
29 [label="x[3] <= 327.0\nentropy = 0.918\nsamples = 9\nvalue = [6, 0, 3, 0]"] ;
28 -> 29 ;
30 [label="x[8] <= 112.5\nentropy = 1.0\nsamples = 6\nvalue = [3, 0, 3, 0]"] ;
29 -> 30 ;
31 [label="x[4] <= 452.0\nentropy = 0.811\nsamples = 4\nvalue = [1, 0, 3, 0]"] ;
30 -> 31 ;
32 [label="entropy = 0.0\nsamples = 3\nvalue = [0, 0, 3, 0]"] ;
31 -> 32 ;
33 [label="entropy = 0.0\nsamples = 1\nvalue = [1, 0, 0, 0]"] ;
31 -> 33 ;
34 [label="entropy = 0.0\nsamples = 2\nvalue = [2, 0, 0, 0]"] ;
30 -> 34 ;
35 [label="entropy = 0.0\nsamples = 3\nvalue = [3, 0, 0, 0]"] ;
29 -> 35 ;
36 [label="x[0] <= 516.0\nentropy = 0.722\nsamples = 10\nvalue = [2, 0, 8, 0]"] ;
28 -> 36 ;
37 [label="x[1] <= 393.5\nentropy = 0.971\nsamples = 5\nvalue = [2, 0, 3, 0]"] ;
36 -> 37 ;
38 [label="entropy = 0.0\nsamples = 3\nvalue = [0, 0, 3, 0]"] ;
37 -> 38 ;
39 [label="entropy = 0.0\nsamples = 2\nvalue = [2, 0, 0, 0]"] ;
37 -> 39 ;
40 [label="entropy = 0.0\nsamples = 5\nvalue = [0, 0, 5, 0]"] ;
36 -> 40 ;
41 [label="entropy = 0.0\nsamples = 10\nvalue = [0, 0, 10, 0]"] ;
19 -> 41 ;
42 [label="entropy = 0.0\nsamples = 14\nvalue = [0, 0, 14, 0]"] ;
18 -> 42 ;
43 [label="entropy = 0.0\nsamples = 2\nvalue = [2, 0, 0, 0]"] ;
17 -> 43 ;
44 [label="entropy = 0.0\nsamples = 14\nvalue = [0, 0, 14, 0]"] ;
16 -> 44 ;
45 [label="entropy = 0.0\nsamples = 21\nvalue = [0, 0, 21, 0]"] ;
15 -> 45 ;
46 [label="entropy = 0.0\nsamples = 23\nvalue = [0, 0, 23, 0]"] ;
4 -> 46 ;
47 [label="x[0] <= 1258.5\nentropy = 0.226\nsamples = 231\nvalue = [3, 4, 224, 0]"] ;
3 -> 47 ;
48 [label="x[6] <= 27.5\nentropy = 0.222\nsamples = 112\nvalue = [0, 4, 108, 0]"] ;
47 -> 48 ;
49 [label="x[1] <= 2073.0\nentropy = 1.0\nsamples = 4\nvalue = [0, 2, 2, 0]"] ;
48 -> 49 ;
50 [label="entropy = 0.0\nsamples = 2\nvalue = [0, 0, 2, 0]"] ;
49 -> 50 ;
51 [label="entropy = 0.0\nsamples = 2\nvalue = [0, 2, 0, 0]"] ;
49 -> 51 ;
52 [label="x[6] <= 239.5\nentropy = 0.133\nsamples = 108\nvalue = [0, 2, 106, 0]"] ;
48 -> 52 ;
53 [label="x[4] <= 58.5\nentropy = 0.078\nsamples = 105\nvalue = [0, 1, 104, 0]"] ;
52 -> 53 ;
54 [label="x[4] <= 56.5\nentropy = 0.337\nsamples = 16\nvalue = [0, 1, 15, 0]"] ;
53 -> 54 ;
55 [label="entropy = 0.0\nsamples = 14\nvalue = [0, 0, 14, 0]"] ;
54 -> 55 ;
56 [label="x[1] <= 357.5\nentropy = 1.0\nsamples = 2\nvalue = [0, 1, 1, 0]"] ;
54 -> 56 ;
57 [label="entropy = 0.0\nsamples = 1\nvalue = [0, 0, 1, 0]"] ;
56 -> 57 ;
58 [label="entropy = 0.0\nsamples = 1\nvalue = [0, 1, 0, 0]"] ;
56 -> 58 ;
59 [label="entropy = 0.0\nsamples = 89\nvalue = [0, 0, 89, 0]"] ;
53 -> 59 ;
60 [label="x[3] <= 598.5\nentropy = 0.918\nsamples = 3\nvalue = [0, 1, 2, 0]"] ;
52 -> 60 ;
61 [label="entropy = 0.0\nsamples = 2\nvalue = [0, 0, 2, 0]"] ;
60 -> 61 ;
62 [label="entropy = 0.0\nsamples = 1\nvalue = [0, 1, 0, 0]"] ;
60 -> 62 ;
63 [label="x[2] <= 14.5\nentropy = 0.17\nsamples = 119\nvalue = [3, 0, 116, 0]"] ;
47 -> 63 ;
64 [label="entropy = 0.0\nsamples = 1\nvalue = [1, 0, 0, 0]"] ;
63 -> 64 ;
65 [label="x[7] <= 11.5\nentropy = 0.124\nsamples = 118\nvalue = [2, 0, 116, 0]"] ;
63 -> 65 ;
66 [label="x[4] <= 203.0\nentropy = 0.811\nsamples = 4\nvalue = [1, 0, 3, 0]"] ;
65 -> 66 ;
67 [label="entropy = 0.0\nsamples = 1\nvalue = [1, 0, 0, 0]"] ;
66 -> 67 ;
68 [label="entropy = 0.0\nsamples = 3\nvalue = [0, 0, 3, 0]"] ;
66 -> 68 ;
69 [label="x[0] <= 1315.0\nentropy = 0.073\nsamples = 114\nvalue = [1, 0, 113, 0]"] ;
65 -> 69 ;
70 [label="x[4] <= 359.5\nentropy = 0.469\nsamples = 10\nvalue = [1, 0, 9, 0]"] ;
69 -> 70 ;
71 [label="entropy = 0.0\nsamples = 9\nvalue = [0, 0, 9, 0]"] ;
70 -> 71 ;
72 [label="entropy = 0.0\nsamples = 1\nvalue = [1, 0, 0, 0]"] ;
70 -> 72 ;
73 [label="entropy = 0.0\nsamples = 104\nvalue = [0, 0, 104, 0]"] ;
69 -> 73 ;
74 [label="x[7] <= 227.0\nentropy = 0.93\nsamples = 55\nvalue = [19, 0, 36, 0]"] ;
2 -> 74 ;
75 [label="x[8] <= 29.0\nentropy = 0.946\nsamples = 22\nvalue = [14, 0, 8, 0]"] ;
74 -> 75 ;
76 [label="entropy = 0.0\nsamples = 5\nvalue = [0, 0, 5, 0]"] ;
75 -> 76 ;
77 [label="x[4] <= 218.0\nentropy = 0.672\nsamples = 17\nvalue = [14, 0, 3, 0]"] ;
75 -> 77 ;
78 [label="x[4] <= 61.0\nentropy = 0.971\nsamples = 5\nvalue = [2, 0, 3, 0]"] ;
77 -> 78 ;
79 [label="entropy = 0.0\nsamples = 2\nvalue = [2, 0, 0, 0]"] ;
78 -> 79 ;
80 [label="entropy = 0.0\nsamples = 3\nvalue = [0, 0, 3, 0]"] ;
78 -> 80 ;
81 [label="entropy = 0.0\nsamples = 12\nvalue = [12, 0, 0, 0]"] ;
77 -> 81 ;
82 [label="x[2] <= 556.5\nentropy = 0.614\nsamples = 33\nvalue = [5, 0, 28, 0]"] ;
74 -> 82 ;
83 [label="entropy = 0.0\nsamples = 19\nvalue = [0, 0, 19, 0]"] ;
82 -> 83 ;
84 [label="x[4] <= 129.5\nentropy = 0.94\nsamples = 14\nvalue = [5, 0, 9, 0]"] ;
82 -> 84 ;
85 [label="entropy = 0.0\nsamples = 3\nvalue = [3, 0, 0, 0]"] ;
84 -> 85 ;
86 [label="x[1] <= 2781.5\nentropy = 0.684\nsamples = 11\nvalue = [2, 0, 9, 0]"] ;
84 -> 86 ;
87 [label="x[6] <= 64.5\nentropy = 0.469\nsamples = 10\nvalue = [1, 0, 9, 0]"] ;
86 -> 87 ;
88 [label="entropy = 0.0\nsamples = 1\nvalue = [1, 0, 0, 0]"] ;
87 -> 88 ;
89 [label="entropy = 0.0\nsamples = 9\nvalue = [0, 0, 9, 0]"] ;
87 -> 89 ;
90 [label="entropy = 0.0\nsamples = 1\nvalue = [1, 0, 0, 0]"] ;
86 -> 90 ;
91 [label="entropy = 0.0\nsamples = 296\nvalue = [296, 0, 0, 0]"] ;
1 -> 91 ;
92 [label="x[7] <= 215.5\nentropy = 0.249\nsamples = 1621\nvalue = [48, 9, 1563, 1]"] ;
0 -> 92 [labeldistance=2.5, labelangle=-45, headlabel="False"] ;
93 [label="x[6] <= 253.0\nentropy = 0.027\nsamples = 1118\nvalue = [0, 3, 1115, 0]"] ;
92 -> 93 ;
94 [label="entropy = 0.0\nsamples = 3\nvalue = [0, 3, 0, 0]"] ;
93 -> 94 ;
95 [label="entropy = 0.0\nsamples = 1115\nvalue = [0, 0, 1115, 0]"] ;
93 -> 95 ;
96 [label="x[7] <= 220.5\nentropy = 0.566\nsamples = 503\nvalue = [48, 6, 448, 1]"] ;
92 -> 96 ;
97 [label="x[8] <= 101.0\nentropy = 1.108\nsamples = 45\nvalue = [18, 1, 26, 0]"] ;
96 -> 97 ;
98 [label="entropy = 0.0\nsamples = 17\nvalue = [17, 0, 0, 0]"] ;
97 -> 98 ;
99 [label="x[8] <= 109.5\nentropy = 0.443\nsamples = 28\nvalue = [1, 1, 26, 0]"] ;
97 -> 99 ;
100 [label="x[0] <= 2567.5\nentropy = 1.5\nsamples = 4\nvalue = [1, 1, 2, 0]"] ;
99 -> 100 ;
101 [label="x[6] <= 269.5\nentropy = 1.0\nsamples = 2\nvalue = [1, 1, 0, 0]"] ;
100 -> 101 ;
102 [label="entropy = 0.0\nsamples = 1\nvalue = [0, 1, 0, 0]"] ;
101 -> 102 ;
103 [label="entropy = 0.0\nsamples = 1\nvalue = [1, 0, 0, 0]"] ;
101 -> 103 ;
104 [label="entropy = 0.0\nsamples = 2\nvalue = [0, 0, 2, 0]"] ;
100 -> 104 ;
105 [label="entropy = 0.0\nsamples = 24\nvalue = [0, 0, 24, 0]"] ;
99 -> 105 ;
106 [label="x[4] <= 461.5\nentropy = 0.457\nsamples = 458\nvalue = [30, 5, 422, 1]"] ;
96 -> 106 ;
107 [label="x[7] <= 243.5\nentropy = 0.584\nsamples = 289\nvalue = [30, 4, 255, 0]"] ;
106 -> 107 ;
108 [label="x[8] <= 101.0\nentropy = 0.56\nsamples = 229\nvalue = [30, 0, 199, 0]"] ;
107 -> 108 ;
109 [label="x[8] <= 99.5\nentropy = 0.992\nsamples = 29\nvalue = [16, 0, 13, 0]"] ;
108 -> 109 ;
110 [label="x[2] <= 283.0\nentropy = 0.696\nsamples = 16\nvalue = [3, 0, 13, 0]"] ;
109 -> 110 ;
111 [label="x[7] <= 238.5\nentropy = 0.391\nsamples = 13\nvalue = [1, 0, 12, 0]"] ;
110 -> 111 ;
112 [label="entropy = 0.0\nsamples = 11\nvalue = [0, 0, 11, 0]"] ;
111 -> 112 ;
113 [label="x[1] <= 351.0\nentropy = 1.0\nsamples = 2\nvalue = [1, 0, 1, 0]"] ;
111 -> 113 ;
114 [label="entropy = 0.0\nsamples = 1\nvalue = [1, 0, 0, 0]"] ;
113 -> 114 ;
115 [label="entropy = 0.0\nsamples = 1\nvalue = [0, 0, 1, 0]"] ;
113 -> 115 ;
116 [label="x[8] <= 98.5\nentropy = 0.918\nsamples = 3\nvalue = [2, 0, 1, 0]"] ;
110 -> 116 ;
117 [label="entropy = 0.0\nsamples = 1\nvalue = [0, 0, 1, 0]"] ;
116 -> 117 ;
118 [label="entropy = 0.0\nsamples = 2\nvalue = [2, 0, 0, 0]"] ;
116 -> 118 ;
119 [label="entropy = 0.0\nsamples = 13\nvalue = [13, 0, 0, 0]"] ;
109 -> 119 ;
120 [label="x[5] <= 353.5\nentropy = 0.366\nsamples = 200\nvalue = [14, 0, 186, 0]"] ;
108 -> 120 ;
121 [label="x[5] <= 60.5\nentropy = 0.603\nsamples = 95\nvalue = [14, 0, 81, 0]"] ;
120 -> 121 ;
122 [label="x[4] <= 330.0\nentropy = 0.918\nsamples = 6\nvalue = [4, 0, 2, 0]"] ;
121 -> 122 ;
123 [label="entropy = 0.0\nsamples = 4\nvalue = [4, 0, 0, 0]"] ;
122 -> 123 ;
124 [label="entropy = 0.0\nsamples = 2\nvalue = [0, 0, 2, 0]"] ;
122 -> 124 ;
125 [label="x[3] <= 579.5\nentropy = 0.507\nsamples = 89\nvalue = [10, 0, 79, 0]"] ;
121 -> 125 ;
126 [label="x[0] <= 198.0\nentropy = 0.35\nsamples = 76\nvalue = [5, 0, 71, 0]"] ;
125 -> 126 ;
127 [label="x[3] <= 415.0\nentropy = 0.837\nsamples = 15\nvalue = [4, 0, 11, 0]"] ;
126 -> 127 ;
128 [label="x[0] <= 68.0\nentropy = 0.946\nsamples = 11\nvalue = [4, 0, 7, 0]"] ;
127 -> 128 ;
129 [label="entropy = 0.0\nsamples = 2\nvalue = [2, 0, 0, 0]"] ;
128 -> 129 ;
130 [label="x[0] <= 124.0\nentropy = 0.764\nsamples = 9\nvalue = [2, 0, 7, 0]"] ;
128 -> 130 ;
131 [label="entropy = 0.0\nsamples = 6\nvalue = [0, 0, 6, 0]"] ;
130 -> 131 ;
132 [label="x[2] <= 324.0\nentropy = 0.918\nsamples = 3\nvalue = [2, 0, 1, 0]"] ;
130 -> 132 ;
133 [label="entropy = 0.0\nsamples = 1\nvalue = [0, 0, 1, 0]"] ;
132 -> 133 ;
134 [label="entropy = 0.0\nsamples = 2\nvalue = [2, 0, 0, 0]"] ;
132 -> 134 ;
135 [label="entropy = 0.0\nsamples = 4\nvalue = [0, 0, 4, 0]"] ;
127 -> 135 ;
136 [label="x[0] <= 559.5\nentropy = 0.121\nsamples = 61\nvalue = [1, 0, 60, 0]"] ;
126 -> 136 ;
137 [label="x[0] <= 547.0\nentropy = 0.31\nsamples = 18\nvalue = [1, 0, 17, 0]"] ;
136 -> 137 ;
138 [label="entropy = 0.0\nsamples = 17\nvalue = [0, 0, 17, 0]"] ;
137 -> 138 ;
139 [label="entropy = 0.0\nsamples = 1\nvalue = [1, 0, 0, 0]"] ;
137 -> 139 ;
140 [label="entropy = 0.0\nsamples = 43\nvalue = [0, 0, 43, 0]"] ;
136 -> 140 ;
141 [label="x[0] <= 240.0\nentropy = 0.961\nsamples = 13\nvalue = [5, 0, 8, 0]"] ;
125 -> 141 ;
142 [label="entropy = 0.0\nsamples = 5\nvalue = [0, 0, 5, 0]"] ;
141 -> 142 ;
143 [label="x[0] <= 2655.5\nentropy = 0.954\nsamples = 8\nvalue = [5, 0, 3, 0]"] ;
141 -> 143 ;
144 [label="entropy = 0.0\nsamples = 4\nvalue = [4, 0, 0, 0]"] ;
143 -> 144 ;
145 [label="x[0] <= 2902.5\nentropy = 0.811\nsamples = 4\nvalue = [1, 0, 3, 0]"] ;
143 -> 145 ;
146 [label="entropy = 0.0\nsamples = 3\nvalue = [0, 0, 3, 0]"] ;
145 -> 146 ;
147 [label="entropy = 0.0\nsamples = 1\nvalue = [1, 0, 0, 0]"] ;
145 -> 147 ;
148 [label="entropy = 0.0\nsamples = 105\nvalue = [0, 0, 105, 0]"] ;
120 -> 148 ;
149 [label="x[3] <= 413.0\nentropy = 0.353\nsamples = 60\nvalue = [0, 4, 56, 0]"] ;
107 -> 149 ;
150 [label="entropy = 0.0\nsamples = 44\nvalue = [0, 0, 44, 0]"] ;
149 -> 150 ;
151 [label="x[0] <= 979.5\nentropy = 0.811\nsamples = 16\nvalue = [0, 4, 12, 0]"] ;
149 -> 151 ;
152 [label="x[5] <= 283.5\nentropy = 0.918\nsamples = 3\nvalue = [0, 2, 1, 0]"] ;
151 -> 152 ;
153 [label="entropy = 0.0\nsamples = 2\nvalue = [0, 2, 0, 0]"] ;
152 -> 153 ;
154 [label="entropy = 0.0\nsamples = 1\nvalue = [0, 0, 1, 0]"] ;
152 -> 154 ;
155 [label="x[0] <= 1221.0\nentropy = 0.619\nsamples = 13\nvalue = [0, 2, 11, 0]"] ;
151 -> 155 ;
156 [label="entropy = 0.0\nsamples = 8\nvalue = [0, 0, 8, 0]"] ;
155 -> 156 ;
157 [label="x[2] <= 469.0\nentropy = 0.971\nsamples = 5\nvalue = [0, 2, 3, 0]"] ;
155 -> 157 ;
158 [label="x[0] <= 1228.0\nentropy = 0.918\nsamples = 3\nvalue = [0, 2, 1, 0]"] ;
157 -> 158 ;
159 [label="entropy = 0.0\nsamples = 1\nvalue = [0, 1, 0, 0]"] ;
158 -> 159 ;
160 [label="x[6] <= 268.0\nentropy = 1.0\nsamples = 2\nvalue = [0, 1, 1, 0]"] ;
158 -> 160 ;
161 [label="entropy = 0.0\nsamples = 1\nvalue = [0, 1, 0, 0]"] ;
160 -> 161 ;
162 [label="entropy = 0.0\nsamples = 1\nvalue = [0, 0, 1, 0]"] ;
160 -> 162 ;
163 [label="entropy = 0.0\nsamples = 2\nvalue = [0, 0, 2, 0]"] ;
157 -> 163 ;
164 [label="x[3] <= 670.5\nentropy = 0.105\nsamples = 169\nvalue = [0, 1, 167, 1]"] ;
106 -> 164 ;
165 [label="x[7] <= 232.0\nentropy = 0.053\nsamples = 168\nvalue = [0, 1, 167, 0]"] ;
164 -> 165 ;
166 [label="x[3] <= 349.5\nentropy = 1.0\nsamples = 2\nvalue = [0, 1, 1, 0]"] ;
165 -> 166 ;
167 [label="entropy = 0.0\nsamples = 1\nvalue = [0, 1, 0, 0]"] ;
166 -> 167 ;
168 [label="entropy = 0.0\nsamples = 1\nvalue = [0, 0, 1, 0]"] ;
166 -> 168 ;
169 [label="entropy = 0.0\nsamples = 166\nvalue = [0, 0, 166, 0]"] ;
165 -> 169 ;
170 [label="entropy = 0.0\nsamples = 1\nvalue = [0, 0, 0, 1]"] ;
164 -> 170 ;
}
